uint32 weights_3_len = 64;
float weights_3[64] = {
	0.07216426730155945,
	0.29103443026542664,
	-0.6556064486503601,
	0.0712994635105133,
	-0.5635184049606323,
	0.06668567657470703,
	-0.3619890511035919,
	0.4616295099258423,
	0.06055503338575363,
	-0.4398821294307709,
	0.3255329132080078,
	-0.2575450837612152,
	-0.09050515294075012,
	0.2140195667743683,
	-0.13294361531734467,
	-0.26336994767189026,
	0.3242684602737427,
	-0.43256503343582153,
	0.5111174583435059,
	-0.03378932923078537,
	0.45682287216186523,
	0.32392480969429016,
	0.06253150850534439,
	-0.3313159644603729,
	0.41302385926246643,
	0.48795923590660095,
	0.2527906596660614,
	-0.19627068936824799,
	0.4782286584377289,
	0.18499930202960968,
	0.12399834394454956,
	0.6192124485969543,
	0.03403954207897186,
	0.4071113169193268,
	0.03502868488430977,
	-0.48167458176612854,
	0.1825060099363327,
	0.09703930467367172,
	-0.6209284067153931,
	0.36420196294784546,
	0.5622293949127197,
	-0.0319015271961689,
	0.6258659958839417,
	-0.6257736086845398,
	0.04699060693383217,
	-0.11220098286867142,
	0.6287282109260559,
	0.027731459587812424,
	0.3681010901927948,
	0.2295186072587967,
	0.4536007046699524,
	0.266133576631546,
	-0.33610403537750244,
	-0.20187406241893768,
	-0.140027716755867,
	-0.7022815942764282,
	-0.06084098666906357,
	-0.6272769570350647,
	-0.39582115411758423,
	-0.5382198691368103,
	-0.3550887405872345,
	0.42696163058280945,
	0.40334567427635193,
	-0.2763875126838684,
};
